digraph Tree {
node [shape=box, style="filled, rounded", color="black", fontname=helvetica] ;
edge [fontname=helvetica] ;
0 [label="sepal length (cm) <= 5.45\ngini = 0.66\nsamples = 91\nvalue = [53, 40, 57]\nclass = virginica", fillcolor="#faf7fe"] ;
1 [label="sepal width (cm) <= 2.8\ngini = 0.1\nsamples = 30\nvalue = [51, 3, 0]\nclass = setosa", fillcolor="#e78845"] ;
0 -> 1 [labeldistance=2.5, labelangle=45, headlabel="True"] ;
2 [label="petal width (cm) <= 0.65\ngini = 0.38\nsamples = 3\nvalue = [1, 3, 0]\nclass = versicolor", fillcolor="#7beeab"] ;
1 -> 2 ;
3 [label="gini = 0.0\nsamples = 1\nvalue = [1, 0, 0]\nclass = setosa", fillcolor="#e58139"] ;
2 -> 3 ;
4 [label="gini = 0.0\nsamples = 2\nvalue = [0, 3, 0]\nclass = versicolor", fillcolor="#39e581"] ;
2 -> 4 ;
5 [label="gini = 0.0\nsamples = 27\nvalue = [50, 0, 0]\nclass = setosa", fillcolor="#e58139"] ;
1 -> 5 ;
6 [label="petal width (cm) <= 1.75\ngini = 0.5\nsamples = 61\nvalue = [2, 37, 57]\nclass = virginica", fillcolor="#d4bcf6"] ;
0 -> 6 [labeldistance=2.5, labelangle=-45, headlabel="False"] ;
7 [label="petal length (cm) <= 2.5\ngini = 0.14\nsamples = 28\nvalue = [2, 36, 1]\nclass = versicolor", fillcolor="#49e78b"] ;
6 -> 7 ;
8 [label="gini = 0.0\nsamples = 1\nvalue = [2, 0, 0]\nclass = setosa", fillcolor="#e58139"] ;
7 -> 8 ;
9 [label="petal length (cm) <= 5.35\ngini = 0.05\nsamples = 27\nvalue = [0, 36, 1]\nclass = versicolor", fillcolor="#3ee684"] ;
7 -> 9 ;
10 [label="gini = 0.0\nsamples = 26\nvalue = [0, 36, 0]\nclass = versicolor", fillcolor="#39e581"] ;
9 -> 10 ;
11 [label="gini = 0.0\nsamples = 1\nvalue = [0, 0, 1]\nclass = virginica", fillcolor="#8139e5"] ;
9 -> 11 ;
12 [label="petal length (cm) <= 4.85\ngini = 0.03\nsamples = 33\nvalue = [0, 1, 56]\nclass = virginica", fillcolor="#833de5"] ;
6 -> 12 ;
13 [label="sepal length (cm) <= 5.95\ngini = 0.5\nsamples = 2\nvalue = [0, 1, 1]\nclass = versicolor", fillcolor="#ffffff"] ;
12 -> 13 ;
14 [label="gini = 0.0\nsamples = 1\nvalue = [0, 1, 0]\nclass = versicolor", fillcolor="#39e581"] ;
13 -> 14 ;
15 [label="gini = 0.0\nsamples = 1\nvalue = [0, 0, 1]\nclass = virginica", fillcolor="#8139e5"] ;
13 -> 15 ;
16 [label="gini = 0.0\nsamples = 31\nvalue = [0, 0, 55]\nclass = virginica", fillcolor="#8139e5"] ;
12 -> 16 ;
}